Intent,f0,f1,f2,f3,f4,f5,f6,f7,f8,f9,f10,f11,f12,f13,f14,f15,f16,f17,f18,f19,f20,f21,f22,f23,f24,f25,f26,f27,f28,f29,f30,f31,f32,f33,f34,f35,f36,f37,f38,f39,f40,f41,f42,f43,f44,f45,f46,f47,f48,f49,f50,f51,f52,f53,f54,f55,f56,f57,f58,f59,f60,f61,f62,f63,f64,f65,f66,f67,f68,f69,f70,f71,f72,f73,f74,f75,f76,f77,f78,f79,f80,f81,f82,f83,f84,f85,f86,f87,f88,f89,f90,f91,f92,f93,f94,f95,f96,f97,f98,f99,f100,f101,f102,f103,f104,f105,f106,f107,f108,f109,f110,f111,f112,f113,f114,f115,f116,f117,f118,f119,f120,f121,f122,f123,f124,f125,f126,f127,f128,f129,f130,f131,f132,f133,f134,f135,f136,f137,f138,f139,f140,f141,f142,f143,f144,f145,f146,f147,f148,f149,f150,f151,f152,f153,f154,f155,f156,f157,f158,f159,f160,f161,f162,f163,f164,f165,f166,f167,f168,f169,f170,f171,f172,f173,f174,f175,f176,f177,f178,f179,f180,f181,f182,f183,f184,f185,f186,f187,f188,f189,f190,f191,f192,f193,f194,f195,f196,f197,f198,f199,f200,f201,f202,f203,f204,f205,f206,f207,f208,f209,f210,f211,f212,f213,f214,f215,f216,f217,f218,f219,f220,f221,f222,f223,f224,f225,f226,f227,f228,f229,f230,f231,f232,f233,f234,f235,f236,f237,f238,f239,f240,f241,f242,f243,f244,f245,f246,f247,f248,f249,f250,f251,f252,f253,f254,f255,f256,f257,f258,f259,f260,f261,f262,f263,f264,f265,f266,f267,f268,f269,f270,f271,f272,f273,f274,f275,f276,f277,f278,f279,f280,f281,f282,f283,f284,f285,f286,f287,f288,f289,f290,f291,f292,f293,f294,f295,f296,f297,f298,f299,f300,f301,f302,f303,f304,f305,f306,f307,f308,f309,f310,f311,f312,f313,f314,f315,f316,f317,f318,f319,f320,f321,f322,f323,f324,f325,f326,f327,f328,f329,f330,f331,f332,f333,f334,f335,f336,f337,f338,f339,f340,f341,f342,f343,f344,f345,f346,f347,f348,f349,f350,f351,f352,f353,f354,f355,f356,f357,f358,f359,f360,f361,f362,f363,f364,f365,f366,f367,f368,f369,f370,f371,f372,f373,f374,f375,f376,f377,f378,f379,f380,f381,f382,f383
Meal-Logging,0.013280220329761505,-0.0047025133584005134,-0.009995669048900405,0.04293506685644388,-0.012507636992571255,-0.0007151404667335252,0.006521877211829026,-0.04046140890568495,-0.03439729350308577,-0.04425124265253544,0.014865053755784174,-0.0576731792340676,-0.04734034463763237,-0.016692742268787697,0.013952114308873812,-0.10449896877010663,0.055681709200143814,0.02716831335177024,-0.006949793392171462,-0.0459917193899552,0.024593376244107883,0.012309595787276825,0.016470078728161752,0.02951712378611167,0.02496711917531987,0.013218980534778288,0.004871046015371879,-0.053350149964292846,-0.042666977271437645,-0.028740186089028914,-0.021328598881761234,-0.03791207789132992,0.042926340053478874,0.0440577349315087,-0.03138445938626925,-0.06308431240419547,0.07077457010746002,-0.04765657956401507,0.0015552718153533835,-0.02799430365363757,-0.004625190864317119,-0.0447879663358132,0.02411262970417738,-0.010844670274915794,-0.012146757721590499,0.010361339974527558,-0.10536704212427139,0.033299291816850506,0.04523841974635919,0.07862764472762744,-0.04403000914802154,-0.0010252382489852607,0.007881598682918897,-0.0074032960886446135,0.03450141909221808,0.04924026504158974,0.003016527600266272,-0.028657107303539913,-0.03195377408216397,0.0139708974553893,-0.00965949431216965,-0.0122270283754915,-0.03836930481096109,0.007039887054512898,-0.006711426928328971,-0.004064869290838639,-0.035569771813849606,0.08939942345023155,0.016625724267214537,0.015306493927103778,-0.10185554499427478,-0.0012402884118879836,0.002062522961447636,-0.031212649308145046,-0.008701717384004345,-0.03418301107982794,0.022152693166087072,-0.05917823687195778,-0.013946261567374071,-0.00017207035367997983,-0.06803010279933612,0.021841150398055714,0.009750951314345002,0.057536320139964424,0.026549119036644697,0.010639097820482371,-0.006469838767467688,0.08257400741179784,0.028615880757570267,-0.026255462939540546,-0.00586690582955877,0.014187891172089925,-0.012432297987591786,-0.020087538209433358,-0.026996556669473648,-0.018078818548625957,-0.03953796997666359,-0.06107759351531664,0.03173917345702648,0.032975913297074534,0.004670789892164369,0.04483838068942229,0.019689704990014434,0.03211531640651325,0.01700503348062436,-0.05385058497389158,-0.0171304684287558,0.028060076758265495,0.02302442692841093,0.018634682521224022,0.017507072848578293,0.09259900823235512,0.02509948145598173,-0.0178680457174778,0.029138966618726652,0.027609795797616243,0.015931363295142848,-0.015066449375202259,0.022844593273475766,0.028826532574991386,-0.0013728025369346142,0.0522493589669466,-0.017999452325360227,-0.014479914757733544,0.0323375907416145,0.02466037527968486,0.06873186926047008,-4.897636233931612e-33,0.008165967282063017,-0.01075535281173264,0.06261290796101093,0.0017671039483199518,0.0524158850312233,-0.0021500348714956394,-0.030779319815337658,-0.008423742411347726,0.04443874085942904,0.023831431676323216,-0.0038304848761375374,0.00980111762570838,-0.02167249098420143,0.02854725974611938,0.006114062542716662,-0.022367782657966018,-0.002171293832361698,0.07073580970366795,0.06473371448616187,0.03814152224610249,-0.06172004217902819,-0.1060657687485218,0.04225792301197847,-0.018045935158928234,0.06929233918587367,0.056146676962574325,0.014817201474215835,0.004076667348272167,0.004815561686882575,0.008842834349100789,0.07879431049029033,-0.038697672076523304,-0.048364777117967606,-0.04789458711942037,0.0054334138258127496,-0.0026166380072633424,-0.011377758346498013,-0.002282760067222019,-0.023578012206902105,-0.013117839330031226,0.027785746147856116,-0.010122202259177962,0.010682189342333004,-0.033330489260454975,-0.06497742359836896,0.0001121092742929856,0.0005155998903016249,0.057868887980779014,0.026159947272390127,0.013753065373748541,0.028790833428502083,-0.05195453576743603,-0.04747446936865648,-0.064300832649072,-0.07131512152651946,0.0006358188960196761,0.038189081785579525,-0.04626506567001343,0.03322737601896127,-0.01993036403534158,0.02285736900133391,0.0338793300713102,0.013500107607493797,-0.057322198525071144,-0.04448654813071092,0.0023402886969658234,-0.009992155789708098,-0.029533049712578457,0.020273347744174924,0.027630948772033054,-0.02403041662182659,-0.06973486952483654,0.04628767569859823,0.0005496041461204489,0.044290595377484955,0.030420606955885887,-0.01819539233110845,-0.026241997877756756,-0.05086618289351463,0.025507519642512005,0.09898041809598605,-0.037033773958683014,-0.009710600172790388,0.03602286521345377,0.000547146851507326,0.0392513923967878,-0.04978331799308459,-0.0016498574430746278,0.043753926952679954,0.027259808344145615,-0.10691000272830327,0.015134354534287317,0.014235168928280473,0.0009239134694022747,-0.09057541315754254,3.0580185540687692e-33,-0.0036754502604405084,0.0024339235484755286,-0.022939199892183144,0.013958509429357946,0.018280652475368697,-0.06250772376855214,0.03673921525478363,0.0022151519854863486,0.02631304844787034,0.012224250240251422,-0.005672847658085327,0.014893078245222569,-0.008896755830695232,-0.03486454952508211,0.013239635542655984,0.11008890221516292,-0.02648380274573962,0.033851963778336845,-0.028369593744476635,-0.019824596742788952,-0.09765956923365593,-0.0028980898787267506,0.022986407081286114,0.022099423222243786,0.013745214169224104,0.05641880383094152,0.07870178483426571,0.06926145280400912,-0.041440852296849094,-0.10527597616116206,0.02123399342720707,-0.10526305933793385,-0.021776950762917597,-0.037041102846463524,0.027970250385502975,0.002009109972277656,-0.016968699657203008,0.003650261632477244,-0.0022655798741955855,0.014527346938848495,0.00769148045219481,0.023154642743368942,-0.007360544172115624,0.035258031450212,-0.04451659942666689,-0.00973160529974848,0.0021615750641406826,-0.008784174492272237,-0.015281189853946367,0.03430193600555261,0.030210182381172974,-0.03906603421395024,-0.006313386373221874,-0.018322610567944746,0.009690507470319668,0.06495615653693676,0.05184049097200235,-0.036411295644938946,0.002506435693552097,-0.049404915111760296,-0.1066840576628844,0.007177365856477991,-0.008292721371011188,0.03479928042118748,0.03443024524797996,-0.04801566464205583,0.016799987526610494,-0.049298870687683426,-0.014992922234038511,0.01915180015688141,-0.008477688296504008,0.02020114668024083,0.06634376135965188,0.030622903257608414,-0.01601697535564502,-0.00614533760623696,-0.0037681650137528777,0.015777863174056012,-0.04129184347887834,-0.02072632995744546,-0.04613234971960386,-0.06624337285757065,0.018668260037278134,-0.02354021929204464,0.009501539325962463,0.007729525027874236,-0.0036983928875997663,0.007632313218588631,0.0014453389837096136,0.060880204662680626,-0.05645922695597013,0.032897364969054856,0.009221036685630679,0.028433458569149177,0.057054599126180015,-1.533974488173347e-08,0.05954986376067003,-0.08537095785140991,0.01617267165177812,0.091214203586181,0.023811114272878815,-0.026392367590839665,0.014593017986044288,-0.003973651910200715,0.03008702180037896,-0.012916294004147252,0.02157338708639145,0.005407759764542182,-0.008585455268378913,-0.007851115893572569,-0.002903320845992615,-0.04949593606094519,0.06267909953991573,-0.018065952385465305,-0.029281763825565577,0.021475474156128865,-0.011862013605423272,0.011428487409527103,0.006199559507270654,-0.029922678290555876,0.06894588842988014,-0.004925546857217948,0.012249394630392393,0.08487314979235332,0.03667220131804546,0.02819554352511962,0.0633387565612793,0.04507530046006044,0.006741292687365785,0.0004076332940409581,-0.007933508066344075,-0.04641093624134859,-0.07763466114799182,-0.013608483966284743,-0.033983287091056504,-0.019079423140889656,-0.06350634060800076,-0.02283629330728824,-0.0032981641901036105,0.01425913554461052,-0.02769767151524623,0.013049745932221413,-0.036967119202017784,-0.010822607359538475,0.02019674548258384,0.04140889458358288,-0.020475608173001092,-0.009773719454339394,0.0894885528832674,0.034351225631932415,-0.020551424628744524,0.04282024192313353,0.053092569733659424,-0.0783466063439846,0.07635792965690295,0.002654992936489483,0.03182411349068085,0.03267962345853448,-0.07273884490132332,-0.04818370503683885
Meal-Planning-Recipes,-0.02567933142806093,0.018419628497213125,0.012755541751782099,0.04826010142763456,-0.052115956942240395,-0.006430947842697303,-0.025584623450413346,-0.06224492937326431,-0.016032267866345744,-0.039903356693685055,0.02520556313296159,-0.0432728948071599,-0.05427115814139446,-0.042642481004198395,0.03147511816738794,-0.052639287586013474,0.09686735644936562,0.028877496408919495,0.03756176804502805,-0.05467065175374349,-0.022350659904380638,-0.017495583354805905,0.035198389242092766,0.005956229164439719,0.04521128566314777,-0.011518838349729776,0.05093753027419249,-0.013480048316220442,-0.041669328386584915,-0.02911088344020148,0.022762899519875646,0.0019628031101698675,-0.005498150285954277,-0.00535066631467392,-0.04286246933043003,0.024566726060584188,0.050310865665475525,-0.03076712624169886,-0.010172339001049599,-0.009070320035486171,-0.007960341191695383,0.01475316317131122,0.03463053945840026,-0.017792275175452232,-0.0015704634133726358,-0.00888282188680023,-0.021121077301359037,0.049646471782277025,0.05783624822894732,0.016102901349465053,-0.03935565364857515,-0.003644834078537921,-0.019670895688856643,-0.03391652864714464,0.04508406730989615,-0.0034715265598303327,-0.07293724517027537,-0.028200385936846335,0.011094235737497607,0.017596966994460672,-0.017057853712079424,-0.013311827147845179,-0.03344224703808626,-0.019352850193778675,-0.026848705485463142,-0.021203938794011872,-0.02346443012356758,0.06644678860902786,-0.02739196557862063,0.04796034346024195,-0.04908007631699244,0.009864715548853079,0.018266875490856666,0.00942903784258912,-0.030001813468212884,0.013365816324949265,0.0255690924047182,-0.046386747931440674,-0.03277011254491905,0.011273244395852089,-0.06909388179580371,0.03519300247232119,0.011530804835880796,0.019870842806994915,0.014621431493045142,0.0163387986831367,-0.0021860516474892697,0.04171032551676035,0.01950501937729617,-0.019567037544523675,0.021701115353304583,0.027747227732713025,0.011092820631650588,-0.020567392464727163,-0.00565477364580147,0.005993158312170029,0.014639877869437138,-0.09725531252721946,-0.024627425281020503,0.009763935425629219,0.0054121750096480055,0.0018725442969298456,0.055951714826126896,-0.013926123177952832,0.004208668464949976,-0.0022267989261308685,0.029115779014925163,0.016191644050801795,0.016556779931609828,0.0018699357751756907,0.0004920504676798979,0.04360240759948889,-0.03340131603181362,-0.024667490273714066,-0.022390567309533555,-0.016313559065262478,0.0876746339102586,-0.0412811671073238,-0.001055903887997071,0.01196641738836964,-0.02578768925741315,0.025667774646232527,-0.003883670433424413,0.0012767629232257605,-0.0299386503174901,0.011113863826418916,0.027118095196783543,-3.379703878937316e-33,-0.003915850073099136,0.018915241894622643,0.010880379239097238,0.05177571220944325,0.07400404879202445,-0.02328293366978566,0.018320993287488818,-0.011066305567510426,0.03998913712954769,0.027143579131613176,0.006347241811454296,-0.024363919471700985,-0.011961457009116808,0.03428286345054706,0.02538331365212798,-0.0642722708483537,-0.02048474100107948,0.041195822258790336,0.03607859803984562,0.0031932944596822685,-0.0627869504193465,-0.04229837656021118,0.017005280125886202,0.003543211380019784,0.004754371164987485,0.003956209324921171,0.018529430652658146,-0.024207470007240772,0.005785973296345522,-0.006660723224437485,0.02415653027856024,0.004015053156763315,-0.015212427669515213,-0.018085980186394107,-0.03244809852913022,0.017928771713438135,-0.052313391119241714,-0.013821028987877071,0.025156721676466987,0.05369253891209761,0.02018931834027171,0.006228032405488193,0.007728955203977724,0.00019325393562515578,-0.008990949640671412,-0.014782390091568232,0.02601822977885604,0.059654676665862404,-0.012404978663350144,-0.012604802614077926,0.01981810883929332,-0.03900749981403351,-0.00629024941008538,-0.00462230007785062,-0.05498236410009364,-0.005298535029093425,0.015814777977842216,-0.011292442446574569,0.034213036919633545,-0.005554628868897756,-0.0032054630476826182,0.03868813129762808,-0.03304308497657379,-0.022607844322919846,-0.041331798459092774,0.014162306887252877,-0.048894548788666725,-0.03651080590983232,-0.001955854861686627,0.004793725597361724,0.015316347669189176,0.005819164992620547,0.06298170735438664,-0.024692111648619175,-0.00751325860619545,0.019885603493700426,-0.0021544836927205324,-0.02521967925228334,-0.004328679642640054,0.002143760425193856,0.06456424544254939,-0.006832647370174527,-0.01331185883221527,0.050482794642448425,-0.030900766180517774,0.03536591399461031,-0.06769529978434245,0.02222731662914157,0.03540115989744663,0.0018728929959858458,-0.09098469031353791,-0.017559934329862397,0.0481501662482818,-0.03873355694425603,-0.08689762403567632,2.3814193728751512e-33,0.011725837830454111,-0.026513700063029926,-0.012045925677133104,0.05648895477255186,0.041251479337612786,-0.05515894293785095,0.0008559120663752159,-0.02655118036394318,0.01606323050024609,-0.03492328648765882,-0.04729585908353329,-0.007564540067808896,0.030821820565809805,-0.042253751307725906,-0.0062303971499204636,0.0722279070566098,0.032868827072282635,0.04860220872797072,0.035099131831278406,-0.019451764257003862,-0.044721949845552444,0.05437649041414261,0.009092934740086397,0.01772669516503811,0.013699386947943518,0.03806581115350127,0.04268177804381897,0.05153795052319765,-0.04949286083380381,-0.03513462810466687,-0.0015919065238752712,-0.07403079761813085,0.031333152359972395,-0.05345521712054809,0.024042258970439434,0.0633700458953778,-0.03685363195836544,-0.004335451822650309,-0.007547927399476369,0.04977631755173206,0.01507031922180128,0.0029566542458875724,0.01424193064061304,0.05366633801410595,-0.019745402969419956,0.013947130491336187,-0.00900002717874789,-0.017220392803816747,-0.02704831453350683,0.02928731559465329,0.03143823410694798,-0.03959512213865916,-0.021157377554724615,-0.01098410040140152,0.016476463293656707,-0.009511339090143641,0.007997651274005571,-0.017422236657390993,0.020684574459058542,-0.025146143743768334,-0.06124158948659897,0.018356816610321403,0.027076388243585825,0.034275464209107064,0.04242613508055607,-0.0039262060696880026,-0.009901213847721616,-0.032349495023178555,-0.011261596596644571,0.03361660148948431,-0.01668113435152918,0.010549477379148206,0.07299434828261535,0.007339513472591837,-0.0006497486416871349,-0.010018434918796023,0.03701407400270303,-1.7301004845649004e-05,-0.005918490816839039,0.021777470596134663,-0.044172938292225204,-0.049953683745115995,-0.011303504676713297,0.003940185221532981,-0.012998329553132256,0.03636565307776133,-0.03316257862995068,0.02402011553446452,-0.0018905581285556157,0.0748176109045744,-0.025917150468255084,-0.00954284449107945,0.06554150767624378,0.05228253950675329,0.07697827493151028,-1.5838373279564166e-08,0.09066594329973061,-0.04472484501699606,-0.031182212755084038,0.06318813748657703,-0.007841402276729545,-0.06419551527748506,-0.008972708601504564,-0.06223060563206673,0.040415749962752066,-0.023173217739289004,0.005182175935866932,0.025570053219174344,0.012834502849727869,0.013456399242083231,-0.03521762586509188,-0.02046238041172425,0.0546465419853727,0.037701670080423355,-0.0480779812981685,0.016268213434765737,-0.018418589257635176,0.029667666405051325,-0.0008692139914880196,-0.04200611232469479,0.07581839648385842,0.01231361972168088,0.005152508461227019,0.026854450969646376,0.05464251836140951,0.03994634281843901,-0.005014083025647172,0.020758350224544603,-0.030207438083986442,-0.005714406142942607,-0.008339054475072771,-0.028227764589246362,-0.06962219501535098,0.006208808937420447,-0.007511728210374713,-0.04256448211769263,-0.06145575828850269,0.009920669253915548,-0.019559562128658097,-0.005969581838144222,-0.02513067133744092,0.011073289880490242,-0.035915360786020756,0.019580447949313868,-0.013038115537104508,0.05943674283723036,-0.023535855502511065,0.013754500712821027,0.06076905938486258,-0.0027379582558448115,-0.002120779291241585,0.03234150223822022,0.028455402546872694,-0.029158756136894226,0.06000058756520351,-0.02076162677258253,-0.00817183822315807,0.03695279670258363,-0.04388119730477532,-0.02546820028995474
Educational-Content,-0.01163888443261385,-0.0023306315764784814,-0.0034380948753096165,0.04405304528772831,-0.0016151822172105312,-0.002544440294150263,-0.001703326404094696,0.0014800434932112695,-0.015383009170182049,-0.03379603773355484,0.020145638106623665,-0.027820295467972756,-0.05276637673377991,-0.04598368853330612,0.008469305373728276,-0.04013751838356257,0.057629653811454774,0.04612262351438403,-0.009904295019805432,-0.044544795900583266,0.02272301623597741,-0.019277128390967846,0.018810993991792202,0.021309133805334567,0.019730046670883895,-0.010064450278878211,0.0022042853757739066,-0.027011648938059806,-0.03744281232357025,-0.024520925432443618,0.01294139821548015,-0.00013452102430164815,0.024505820497870444,-0.0072886434383690355,-0.032680885121226314,0.023070543818175793,0.02593012764118612,-0.0378278523683548,-0.01952874008566141,-0.02506909586954862,0.002844659425318241,-0.030689411889761688,0.009275015024468303,0.000859697163105011,0.008493145927786827,-0.010201603174209595,-0.010815571155399084,0.015329018421471118,0.03559418693184853,0.012795249465852976,-0.036995213478803635,-0.01657375330105424,-0.0443978164345026,-0.009286911226809025,0.03901818487793207,0.0017515719868242741,-0.04161555022001266,-0.00916003230959177,-0.012473996356129646,0.01359069966711104,0.012447734270244837,-0.01023440035060048,-0.019036175962537528,0.009621442481875419,0.01283084750175476,-0.017740913573652504,-0.009618469700217246,0.027674828935414553,-0.01875473028048873,0.011510097386781127,-0.03099015951156616,-0.00942776445299387,0.002942821104079485,0.01079010646790266,-0.0076473512221127745,0.017016869410872458,-0.0012792879715561867,-0.039873613975942135,-0.005700415000319481,0.018174551753327252,-0.029927409812808038,0.02873564213514328,0.006611060630530119,0.04506386183202267,0.03730845330283046,0.01285111284814775,0.001703487429767847,0.021365752350538968,-0.003528623655438423,0.0007151664234697819,0.009289506776258349,0.008806366752833129,0.011978990351781248,0.023529079277068377,-0.02222573310136795,0.007450404716655612,-0.001408453402109444,-0.059229782223701476,-0.011022637784481048,-0.00033443719148635865,-0.015042919106781483,-0.009634255990386009,0.02437429535202682,-0.014685081131756306,-0.008749967848416418,0.007376307481899857,0.006090440135449171,0.013102815253660083,0.022606555745005606,0.026339144725352526,-3.207437694072723e-05,0.04592454619705677,-0.026782525517046452,0.00613661939278245,-0.031246326118707656,-0.0019428754691034555,0.07845539897680283,-0.03634512238204479,-0.0018653406295925379,0.01704432226251811,-0.028346996009349822,-0.012809555791318417,0.032367991842329503,-9.570494294166564e-05,-0.018163565825670958,0.02889870200306177,0.007896211370825768,-4.221040346571123e-33,-0.03038441389799118,-0.013738920912146568,0.020285549387335778,0.011117176152765751,0.016842273343354464,-0.00219020948279649,-0.014316548872739077,-0.005992004461586475,0.0467111274600029,0.02615577485412359,0.005805462412536144,-0.007427935861051083,-0.01057224441319704,0.03450093306601047,0.010769668221473693,-0.04789994042366743,-0.03232312425971031,0.012197320349514484,0.03414836898446083,0.00045809466391801836,-0.04589683264493942,-0.011703890841454267,0.0027348991949111222,0.010317365746595896,0.014762696344405413,-0.01080478096846491,-0.0036648613364377524,-0.01693767721299082,-0.004535811161622405,-0.00023486348800361156,0.038293912447988986,-0.018976614536950365,-0.007676770538091659,-0.020055427122861146,-0.0097670377290342,0.017523074196651577,-0.04071866869926453,-0.005806024745106697,-0.0034806140698492526,0.027398648858070373,0.0043077654205262664,0.0005273936316370964,0.028300555795431136,-0.01232558514457196,0.013857446098700165,0.0042901718057692054,-0.0010765935643576086,0.02799975366797298,-0.03041575849056244,0.001144491881132126,0.020421869494020937,-0.019067049212753772,-0.0030296068347524852,0.005774764437228441,-0.028154339641332626,-0.023624980729073285,0.00915885865688324,-0.009348922478966414,-0.00631253719329834,0.011637151334434747,-0.01084530707448721,0.057488910108804706,-0.02091793330037035,0.017155892588198184,-0.025395323894917964,0.013743865443393588,-0.04313595034182072,-0.027015480399131774,-0.012174299173057079,0.004170008597429842,0.009714718838222326,-0.017370772361755372,0.037002750858664515,0.00531223751604557,-0.02161479859496467,-0.01379883186891675,-0.029255764186382295,-0.001864398893667385,-0.03006983525119722,0.0011805005371570588,0.03910078760236502,0.006541020423173905,-0.010317438805941492,0.03806617334485054,-0.052797896414995195,0.03193835832644254,-0.0711039923131466,0.0097570919431746,0.0731073148548603,-0.022943083290010692,-0.0444719348102808,-0.010429614502936602,0.0050983670342247935,-0.01799688208848238,-0.06916254088282585,2.376085836642417e-33,0.00835646481718868,-0.020137111004441977,0.016428553347941487,0.06392690315842628,0.011982579622417689,-0.035942092165350915,0.0229179248213768,-0.008909302949905395,0.043238870402274185,-0.02813670616596937,-0.0029518991708755494,-0.008260528557002544,0.014643077179789543,-0.020321377925574778,0.0006259513087570667,0.06452663019299507,-0.017721672356128693,0.049476851150393485,-0.0005826936103403568,-0.01560434396378696,-0.024979601259110494,0.05504926368594169,0.004546638950705529,0.031033723056316374,0.024600447434931994,0.023657675087451934,0.013429797813296318,0.035320242214947936,-0.021107773995026946,-0.03254545591771603,0.024222145322710276,-0.0391369070392102,-0.0006248713936656714,-0.05225060172379017,0.013927544886246323,0.030545232724398373,-0.015473793260753155,0.00519676354015246,-0.017108601145446302,0.03788475543260574,-0.008064438868314028,0.013342562923207879,0.01495004240423441,0.02571358671411872,-0.01876069689169526,0.011079621431417764,0.008073157491162419,-0.03101335312239826,-0.00025540372589603064,0.0327917642891407,0.03990832343697548,-0.023143022507429122,-0.002805945574073121,-0.0009121436625719071,0.02737394003197551,0.010305563732981683,0.0036688968539237976,0.002069229148037266,-0.013109753280878067,-0.013637984916567803,-0.018300623074173926,-0.0018331991974264382,0.01973451767116785,0.0034546312876045705,0.022552724136039613,0.004989441018551588,-0.010847902297973633,-0.01213914416730404,0.00237705206964165,0.020559681206941606,0.01473540933802724,-0.0027754759415984155,0.05161162987351418,-0.0074720338801853355,-0.011404565436532722,-0.013486197590827942,-0.0007586786523461342,0.0060586798004806045,-0.021142940502613783,0.011949124187231064,-0.05451889038085937,-0.033493316173553465,-0.01187066240236163,0.0017403509467840196,-0.0306520102545619,0.019138209614902736,-0.047816432639956476,0.007108600158244371,0.0014515206217765807,0.045420022681355476,-0.03598089516162872,-0.026693182345479727,0.0070437688380479814,0.03983703982084989,0.05380379557609558,-1.6753310205785964e-08,0.059921158105134965,-0.05195038095116615,-0.010754997283220291,0.02623873548582196,-0.0039998598396778105,-0.007875447021797299,-0.008631010050885379,0.0004662811756134033,0.025986818969249724,-0.007978588435798883,0.0037250014953315257,0.048672857135534285,-0.011420347192324699,0.016759431920945644,-0.017994329612702132,-0.016954681370407343,0.029205542989075184,0.0317017812281847,-0.03314629979431629,0.018343707732856273,-0.02424167686840519,0.011645350977778435,-0.0022415427258238195,-0.02443890320137143,0.04330230373889208,-0.02611868493258953,0.021688427403569223,0.03333931677043438,0.03439011797308922,0.02529950849711895,0.029021275322884323,0.016056911679334006,-0.017543928138911723,0.00043107140809297564,-0.02605269616469741,0.0018332841340452433,-0.025544458255171775,0.010423613805323839,-0.018118054792284965,-0.0033174609299749134,-0.05013633817434311,0.011386017221957445,-0.011782429134473204,0.016984482412226498,-0.011929229821544141,-0.00502584115602076,-0.01413684682920575,0.032009779405780134,0.004763471614569426,0.02970272961538285,0.0027925596572458745,0.009675940778106452,0.01020169872790575,-0.003130613686516881,-0.029043389204889535,0.010187660437077284,0.0343877375125885,-0.009766234527342021,0.012130385427735747,-0.012805365025997162,0.012252876535058022,-0.001721104234457016,0.026903195679187773,-0.02471226528286934
Personalized-Health-Advice,0.0018554516912748416,0.035944747583319746,0.010790268968169888,0.08000575626889865,-0.04411341808736324,0.021083746338263154,-0.01817624305355518,-0.020157323606933158,-0.05891310175259908,-0.04557627812027931,0.007054999490113308,-0.00045691309302734834,-0.03940611581007639,-0.04709884865830342,0.03825869085267186,-0.02106882833565275,0.06575967992345493,0.0645430392275254,0.04088769108057022,-0.05777733959257603,-0.005112687203412254,-0.005895735463127494,0.04191495478153229,0.014056511456146836,0.012416481476975605,-0.006578665672956656,0.003856849546233813,-0.05835602059960365,-0.0598306879401207,-0.018477806394609313,0.046834913392861686,-0.035641455401976906,0.0005385934297616283,0.00810615814407356,-0.0635273704926173,0.029321731999516487,0.021508508672316868,-0.05476169288158417,-0.055809433882435165,-0.021497417086114485,-0.012268872931599617,0.00542136887088418,0.021803315437864512,-0.01798493228852749,0.004736827060696669,-0.033554021579523884,-0.01182432189428558,0.050139655048648514,0.06056005693972111,0.03291650159129252,-0.050836765517791115,-0.008301108920325836,-0.012457509835561117,-0.02353074789668123,0.07581193124254544,0.0029539975027243295,-0.05920605516682068,-0.022355809148090582,-0.008969981618671833,0.003971808929539596,0.023003696464002132,-0.03483275758723418,-0.01450719436009725,-0.016461140010505915,-0.035952411902447544,-0.0152128542928646,-0.008803137267629305,0.04222092560182015,-0.03365108463913202,0.040626284666359425,-0.03481852263212204,-0.013160035654436797,0.013644550674750159,-0.0013677947378406923,0.004649267177834797,0.032129258227845035,-0.015753823225774493,-0.05790908929581443,-0.003524803362476329,0.004920673178276047,-0.026004111239065725,0.049718232514957585,0.036966383922845125,0.06382712535560131,0.04238561571886142,0.02405082667246461,-0.012079359303849438,0.03728839258352915,-0.03772393458833297,0.014982450171373785,0.027649691328406334,0.0015795799360300105,-0.003557537759964665,0.058591097593307495,0.009606964071281254,-0.020092368436356384,0.0004185197564462821,-0.09414273810883363,-0.030202215692649286,-0.008593859636069586,0.0001695524745931228,-0.017332192944953324,0.053924977158506714,0.02845479315146804,-0.002642961141342918,0.016857898018012445,0.0005658192482466499,0.020103644928894937,0.013706430792808533,0.01832034974358976,0.0228178840285788,0.04850795678794384,-0.0636292602866888,0.01565630144129197,-0.026136773948868115,0.018263910586635273,0.0903468889494737,-0.025891774334013462,0.00272280916882058,0.04075073730200529,-0.03968961692104737,0.0007144705935691794,0.04034273326396942,-0.011958707031832697,0.008998474183802804,0.03615869522521583,0.0499624852091074,-3.4624318346584946e-33,-0.029108396886537474,-0.022637429773264255,0.007013243545467655,0.029601651864747208,0.025318341484914225,0.012685987011839947,0.006304179163028796,-0.005923963287690033,0.05866383978476127,-0.013786010056113204,-0.008841131522785872,-0.027790460425118606,-0.0022411590616684407,-0.01142115305022647,-0.007002872880548239,-0.06390370987355709,-0.046449778291086354,0.022190404667829473,0.031361800308028855,0.012827889140074452,-0.015740666538476944,-0.06186871354778608,0.008606239241392663,-0.012415978979940215,0.034846690793832145,-0.028526328193644684,0.025710062589496374,-0.008717512711882591,0.009523538639768958,0.00415863288314237,0.011759743870546421,-0.02058444420496623,-0.0036415603244677186,-0.026851321415354807,-0.016625850647566647,0.010894765922178825,-0.0514807648335894,-0.005395034948984782,-0.013447696381869415,0.03611008698741595,0.034234658194084965,0.02012627385556698,0.018416134213718276,-0.005101531727026061,0.028983299465229113,-0.02044729795306921,0.023387007706332952,0.008904518792405725,-0.06340371258556843,-0.0004558154420616726,0.014026802033185959,-0.044245676758388676,-0.014841983405252298,-0.015773351507959887,-0.027610177950312693,-0.09339120735724767,-0.028941766048471134,0.006631893881907065,0.011132162064313889,0.015194608053813377,-0.0015308166718265663,0.03640082152560353,-0.026645300754656393,0.01226578226002554,-0.01167768434000512,0.006059975208093722,-0.05538167028377453,-0.06210635726650556,-0.06312198316057523,0.015159823272066811,0.04596821777522564,-0.016170741932000965,0.06721614114940166,-0.0005438034422695637,-0.028765231060485046,-0.015190519882404866,-0.03252554824575782,-0.01115786749869585,-0.06578011251986027,-0.000760556412084649,0.0552414208650589,0.01301263039931655,-0.013333998994009258,0.08515042935808499,0.001980534342389243,0.05593154268960158,-0.09568458671371143,0.006650839272576074,0.09835708762208621,-0.04296621245642503,-0.08023881477614243,-0.012986943494373312,0.019271662594595302,0.003937712637707591,-0.09881658355395,2.792240964998613e-33,0.02498435613233596,-0.02798990571560959,0.046754056277374424,0.02790793760990103,0.02368938239912192,-0.03930753003805876,0.027068355043108266,0.0071107263017135365,0.03534203007196387,-0.04704574774950743,-0.008053506220070025,0.0019851623316450664,0.025477744328478973,-0.03181404170269767,0.0009820353783046205,0.07637702487409115,0.004913289953644077,0.04467309297372898,-0.014457986767714223,0.0017963384743779898,-0.03680248147187134,0.06873625703155994,0.016709100765486557,0.012910700985230505,0.03863825493802627,0.034942311545213066,0.019035881307596963,0.044645157953103386,-0.019548835853735607,-0.01613735205804308,0.020530433937286336,-0.003578969743102789,0.008978781678403417,-0.06898550254603227,0.04452431946992874,0.039903827322026096,-0.027444660974045593,-0.007501336938124344,-0.02729316909487049,0.06480403244495392,0.014580491270559529,0.022254391262928646,0.024705568483720224,0.036845412415762745,-0.008482182320828239,-0.005252942830945055,0.005855724622961134,-0.0378332290177544,-0.031282372772693634,0.03688931496193012,0.01804465416353196,-0.05298894022901853,0.0187486008896182,0.007701965669790904,0.056638928751150765,-0.013128152689508473,0.00026332590884218615,-0.028988901215294998,-0.008598942561851194,-0.05883032580216726,-0.05974792502820492,-0.009071317827571571,0.021744750750561554,0.0020818117967185876,0.05760363365213076,0.0011491021917512019,0.003473738208413124,-0.0261730751565968,-0.020864398645547528,0.03818303067237139,-0.024699353147298098,-0.014286331599578261,0.0545942901323239,0.010765673107622812,0.0012606320281823475,-0.02579499447407822,0.001592934364452958,0.03407648236801227,-0.003490516139815251,0.030999350051085155,-0.07021473844846089,-0.04658227072407802,0.0028998537842805185,-0.03081839702402552,-0.0288963831262663,0.02656280528753996,-0.0740957527110974,0.014144443674013019,0.006276894642117743,0.08568927086889744,-0.04594645214577516,-0.0569184934720397,0.004911222107087572,0.025707116350531578,0.07674148492515087,-1.6135521659540093e-08,0.0884883813560009,-0.07495546527206898,-0.03364674902210633,0.06068549615641435,-0.011309543488702426,-0.051413152987758316,-0.04032602564742168,0.005432461776460211,0.04192866260806719,-0.0432833987288177,0.010911151223505536,0.05350284557789564,0.05338279530405998,-0.009154883213341236,-0.039251141560574375,-0.029997530082861584,0.056017657121022545,0.0738497090836366,-0.03696014794210593,0.020902469133337338,-0.01678476979335149,-0.013708372348143408,0.029968351280937593,-0.024100061661253374,0.045850225103398166,-0.014388091745786369,0.04424272757023573,0.009065891868279627,0.053138443268835545,0.02641706952514748,0.040377930738031864,-0.0020149639264370003,-0.0018522242705027263,-0.0025026672519743443,-0.02872397719571988,-0.039804402738809586,0.025628997168193262,0.018184347621475656,-0.02338172510887186,-0.017262762305714812,-0.05478021207575997,0.011904616296912232,-0.007525784700798492,0.03167460144807895,-0.0007327022807051738,-0.006261047907173634,-0.00581121183737802,0.04155517524729172,0.014322833740152419,0.00463608721717416,-0.0028428523801267147,0.02333786408416927,0.035787212351957955,0.01055999431021822,-0.04255557432770729,0.049573817600806556,0.02737121159831683,-0.015076935368900498,0.0036143699932533004,-0.017916088147709768,-0.002387618452000121,0.013068380144735178,-0.011540041712578386,-0.007407670251268428
